digraph Tree {
node [shape=box, style="filled", color="black"] ;
0 [label="Sex <= 0.5\ngini = 0.5\nsamples = 427\nvalue = [254, 173]", fillcolor="#f7d7c0"] ;
1 [label="Pclass <= 2.5\ngini = 0.3\nsamples = 145\nvalue = [31, 114]", fillcolor="#6fb8ec"] ;
0 -> 1 [labeldistance=2.5, labelangle=45, headlabel="True"] ;
2 [label="gini = 0.1\nsamples = 93\nvalue = [5, 88]", fillcolor="#44a3e6"] ;
1 -> 2 ;
3 [label="gini = 0.5\nsamples = 52\nvalue = [26, 26]", fillcolor="#ffffff"] ;
1 -> 3 ;
4 [label="Age <= 3.5\ngini = 0.3\nsamples = 282\nvalue = [223, 59]", fillcolor="#eca26d"] ;
0 -> 4 [labeldistance=2.5, labelangle=-45, headlabel="False"] ;
5 [label="gini = 0.4\nsamples = 17\nvalue = [5, 12]", fillcolor="#8bc6f0"] ;
4 -> 5 ;
6 [label="gini = 0.3\nsamples = 265\nvalue = [218, 47]", fillcolor="#eb9c64"] ;
4 -> 6 ;
}